digraph Tree {
node [shape=box] ;
0 [label="X[2] <= 2.5\ngini = 0.7902\nsamples = 137\nvalue = [2, 1, 2, 4, 17, 22, 49, 26, 6, 4, 3, 1]"] ;
1 [label="X[2] <= 0.5\ngini = 0.7137\nsamples = 91\nvalue = [2, 1, 2, 4, 17, 21, 40, 4, 0, 0, 0, 0]"] ;
0 -> 1 [labeldistance=2.5, labelangle=45, headlabel="True"] ;
2 [label="X[3] <= 0.5\ngini = 0.6968\nsamples = 27\nvalue = [0, 1, 2, 4, 10, 10, 0, 0, 0, 0, 0, 0]"] ;
1 -> 2 ;
3 [label="gini = 0.0\nsamples = 10\nvalue = [0, 0, 0, 0, 0, 10, 0, 0, 0, 0, 0, 0]"] ;
2 -> 3 ;
4 [label="gini = 0.5813\nsamples = 17\nvalue = [0, 1, 2, 4, 10, 0, 0, 0, 0, 0, 0, 0]"] ;
2 -> 4 ;
5 [label="X[3] <= 1.5\ngini = 0.563\nsamples = 64\nvalue = [2, 0, 0, 0, 7, 11, 40, 4, 0, 0, 0, 0]"] ;
1 -> 5 ;
6 [label="X[2] <= 1.5\ngini = 0.4115\nsamples = 54\nvalue = [0, 0, 0, 0, 0, 10, 40, 4, 0, 0, 0, 0]"] ;
5 -> 6 ;
7 [label="X[3] <= 0.5\ngini = 0.4444\nsamples = 30\nvalue = [0, 0, 0, 0, 0, 10, 20, 0, 0, 0, 0, 0]"] ;
6 -> 7 ;
8 [label="gini = 0.0\nsamples = 20\nvalue = [0, 0, 0, 0, 0, 0, 20, 0, 0, 0, 0, 0]"] ;
7 -> 8 ;
9 [label="gini = 0.0\nsamples = 10\nvalue = [0, 0, 0, 0, 0, 10, 0, 0, 0, 0, 0, 0]"] ;
7 -> 9 ;
10 [label="X[3] <= 0.5\ngini = 0.2778\nsamples = 24\nvalue = [0, 0, 0, 0, 0, 0, 20, 4, 0, 0, 0, 0]"] ;
6 -> 10 ;
11 [label="gini = 0.0\nsamples = 4\nvalue = [0, 0, 0, 0, 0, 0, 0, 4, 0, 0, 0, 0]"] ;
10 -> 11 ;
12 [label="gini = 0.0\nsamples = 20\nvalue = [0, 0, 0, 0, 0, 0, 20, 0, 0, 0, 0, 0]"] ;
10 -> 12 ;
13 [label="gini = 0.46\nsamples = 10\nvalue = [2, 0, 0, 0, 7, 1, 0, 0, 0, 0, 0, 0]"] ;
5 -> 13 ;
14 [label="X[3] <= 0.5\ngini = 0.7032\nsamples = 46\nvalue = [0, 0, 0, 0, 0, 1, 9, 22, 6, 4, 3, 1]"] ;
0 -> 14 [labeldistance=2.5, labelangle=-45, headlabel="False"] ;
15 [label="gini = 0.56\nsamples = 5\nvalue = [0, 0, 0, 0, 0, 0, 0, 0, 1, 3, 0, 1]"] ;
14 -> 15 ;
16 [label="X[2] <= 4.5\ngini = 0.6425\nsamples = 41\nvalue = [0, 0, 0, 0, 0, 1, 9, 22, 5, 1, 3, 0]"] ;
14 -> 16 ;
17 [label="X[3] <= 1.5\ngini = 0.5254\nsamples = 32\nvalue = [0, 0, 0, 0, 0, 1, 9, 20, 2, 0, 0, 0]"] ;
16 -> 17 ;
18 [label="gini = 0.2778\nsamples = 12\nvalue = [0, 0, 0, 0, 0, 0, 0, 10, 2, 0, 0, 0]"] ;
17 -> 18 ;
19 [label="X[2] <= 3.5\ngini = 0.545\nsamples = 20\nvalue = [0, 0, 0, 0, 0, 1, 9, 10, 0, 0, 0, 0]"] ;
17 -> 19 ;
20 [label="gini = 0.1975\nsamples = 9\nvalue = [0, 0, 0, 0, 0, 1, 8, 0, 0, 0, 0, 0]"] ;
19 -> 20 ;
21 [label="gini = 0.1653\nsamples = 11\nvalue = [0, 0, 0, 0, 0, 0, 1, 10, 0, 0, 0, 0]"] ;
19 -> 21 ;
22 [label="gini = 0.716\nsamples = 9\nvalue = [0, 0, 0, 0, 0, 0, 0, 2, 3, 1, 3, 0]"] ;
16 -> 22 ;
}